tree
version=v4
num_class=1
num_tree_per_iteration=1
label_index=0
max_feature_idx=25
objective=binary sigmoid:1
feature_names=log_return drift_tscore_15 drift_tscore_30 drift_tscore_60 rv_30 rv_120 rv_delta true_range range_expansion er_30 er_60 er_120 autocorr flip_rate median_cross impulse_revert illiquidity volume_zscore gap_score entropy d_lambda mass d_mass_dt ofi_proxy absorption_score dissipation_proxy
feature_infos=[-14.804304169836652:11.126940760173545] [-5.5924855220858198:3.8923083297461862] [-3.5390885414735611:5.2110401629228242] [-4.4279903219979309:3.4232633957344465] [-2.9832179930400207:9.1188775026808528] [-9.4077896099511165:17.633860914224648] [-5.0834493598747503:5.2048727665795456] [-2.2681879365674544:14.676627305806807] [-1.8157911020200923:9.5295180818211271] [-2.4079033404209218:5.4188076492427086] [-3.1010682824464242:3.8863418134762338] [-4.0963246248149527:13.107477182716771] [-3.9696365688961568:4.7987566532313721] [-4.0469445568595726:3.3724537973829758] [-2.5430655028967601:6.7449075947659525] [-4.046944556859569:5.3959260758127581] [-1.5219374436771586e-05:2.4911065022167622e-05] [-3.0203070169413042:18.695210585402865] [-20.281109996186679:11.0041951589345] [-3.7153885427815614:2.2138505016865189] [-0.00014356719641629999:0.00012461028760279999] [-5.5202731450011724:1.458496325736593] [-2.8725861206490162:3.2244562678227111] [-7.7267062285620502:5.6554177578206293] [-2.1536697945356917:9.3272632982898482] [-2.6979630379063808:4.0469445568595726]
tree_sizes=3318 3426

Tree=0
num_leaves=31
num_cat=0
split_feature=16 21 10 12 7 7 4 12 21 7 14 11 20 7 25 22 4 21 25 12 23 21 10 23 21 4 23 21 16 10
split_gain=15.703 7.31643 6.35778 6.64783 6.3463 7.78797 6.3689 5.39204 4.99149 6.80599 5.80703 5.50516 6.56543 8.76903 7.25245 6.51143 7.07539 5.67944 5.44555 12.0278 7.74672 7.32135 8.0957 6.11615 23.0401 5.30496 4.9374 4.75199 4.70309 5.72626
threshold=-6.0325253098720141e-06 -0.3880627185195249 0.65858010006660461 -0.11209288863774844 -0.64224492204094075 -0.90053250597741508 -0.9462632274416124 0.34209592274904493 -2.5241682159593419 2.809536165020778 -1.3489815189531895 1.0766017260275456 3.4678062019604529e-05 1.5722961413847283 1.3489815189531913 0.68228648943858539 -0.018735944339963947 -0.50906618911356039 -0.52273033859436124 -0.60242868342197775 0.094696993435519669 0.78062724773068271 0.93852463408785192 0.074827647896212171 -0.33556360501239296 -0.67617435308805651 -0.021945402347278698 -0.33556360501239296 3.0448238945307247e-06 -0.40594282951400679
decision_type=2 2 2 2 2 2 2 2 2 2 2 2 2 2 2 2 2 2 2 2 2 2 2 2 2 2 2 2 2 2
left_child=1 26 -3 -4 5 6 -2 -8 -6 10 25 12 13 14 18 16 -13 -18 20 21 -12 22 -20 27 -25 -10 -1 -21 29 -7
right_child=4 2 3 -5 8 28 7 -9 9 -11 11 15 -14 -15 -16 -17 17 -19 19 23 -22 -23 -24 24 -26 -27 -28 -29 -30 -31
leaf_value=0.13549910503340382 0.11534647215590632 0.25174538980238353 0.24020517585344542 0.16897847900731103 0.21610963654339399 0.15530427872335831 0.16077248888797041 0.21275086439714441 0.10665999246732975 0.12945331517015457 0.13122012134023653 0.20200279352914571 0.13609182952980081 0.20835862389820264 0.12794186770434224 0.21830014011703505 0.18099520046896644 0.12164416993012425 0.12407927973615521 0.17052630027286383 0.18811986865798075 0.20603332010464523 0.19595700366589647 0.22450656690901799 0.12665662326062432 0.16975858092514964 0.20603332010464523 0.22555618320472096 0.23595692649850522 0.21117026574008579
leaf_weight=4.9621307849884033 4.962130784988406 10.172368109226229 5.706450402736662 7.6913027167320251 4.9621307849884024 7.1950896382331893 15.134498894214632 7.4431961774826041 7.1950896382331848 12.405326962471007 18.111777365207676 12.40532696247101 16.871244668960571 12.901540040969847 11.909113883972166 11.412900805473326 8.1875157952308673 7.9394092559814444 18.607990443706512 5.2102373242378262 8.9318354129791242 4.9621307849884024 4.9621307849884024 11.909113883972163 12.157220423221593 6.2026634812355024 4.9621307849884015 15.878818511962896 8.1875157952308637 12.653433501720428
leaf_count=20 20 41 23 31 20 29 61 30 29 50 73 50 68 52 48 46 33 32 75 21 36 20 20 48 49 25 20 64 33 51
internal_value=0.174497 0.20678 0.221943 0.199316 0.170473 0.185521 0.166636 0.177908 0.166549 0.165368 0.167644 0.169978 0.165377 0.169313 0.16484 0.186381 0.173614 0.151776 0.169203 0.176245 0.150013 0.150833 0.139211 0.192303 0.175077 0.135872 0.170766 0.211961 0.204072 0.190919
internal_weight=302.194 33.4944 23.5701 13.3978 268.699 55.5759 27.5398 22.5777 213.124 208.161 195.756 182.358 142.413 125.542 112.64 39.9452 28.5323 16.1269 100.731 73.6876 27.0436 28.5323 23.5701 45.1554 24.0663 13.3978 9.92426 21.0891 28.036 19.8485
internal_count=1218 135 95 54 1083 224 111 91 859 839 789 735 574 506 454 161 115 65 406 297 109 115 95 182 97 54 40 85 113 80
is_linear=0
shrinkage=1


Tree=1
num_leaves=31
num_cat=0
split_feature=16 21 3 16 1 1 15 16 3 25 8 1 7 23 3 21 7 18 6 7 6 22 20 4 23 5 13 22 18 5
split_gain=14.2195 6.65671 6.0237 6.72148 5.84591 11.9492 9.9921 10.8066 10.182 9.0669 8.56222 7.18796 7.0178 8.68964 6.79281 6.24116 6.69698 6.02207 6.38738 4.99918 6.19441 5.76272 7.64121 11.2036 6.51679 5.37474 4.94138 7.15037 6.85247 4.82545
threshold=-6.0325253098720141e-06 -0.3880627185195249 0.63991231722052178 -7.625881247604527e-06 0.025903140562173854 -0.0044477841879275492 1.6295507755452878 -4.873275123266224e-07 -0.6856620439406288 -0.52273033859436124 -0.93053784818870822 -0.82040844279795799 -0.11308449914928918 0.051687585597572958 -0.86688088028678567 0.87205972580190083 -1.0135012087687307 -1.518635786605621 -0.087618454084432237 -0.66315521617989914 0.10264968694392476 0.017387101078330254 1.4470632894696768e-05 -0.66507488230066558 0.10193519546355596 -0.39851845920505197 0.50586806960744612 0.91483566937617944 0.91982591705317807 0.27828189163347666
decision_type=2 2 2 2 2 2 2 2 2 2 2 2 2 2 2 2 2 2 2 2 2 2 2 2 2 2 2 2 2 2
left_child=1 -1 -3 -4 5 6 8 -8 14 10 -6 -9 13 -10 26 16 -11 -14 -19 -18 21 22 25 -24 -23 -21 27 28 -2 -12
right_child=4 2 3 -5 9 -7 7 11 12 15 29 -13 17 -15 -16 -17 19 18 -20 20 -22 24 23 -25 -26 -27 -28 -29 -30 -31
leaf_value=-0.0035417561976242963 0.038441175453530874 0.074444350372170495 -0.0038953281196349773 0.069599184160461708 0.036934647461421381 -0.077446326520575412 0.076561980293679666 -0.039238952874178189 0.019538591574401212 -0.039676464026828395 -0.019440519315147946 0.03406898125327551 0.00078397450019821466 -0.043780469742198951 0.05027445754827823 0.046260757628473717 0.036894284897735122 -0.010501256156396473 -0.057700323642726314 -0.01846954906761231 0.021199299366308492 0.043807447382000021 0.055407431141497349 -0.041066492549890803 -0.026316416367928575 -0.090351600020432368 -0.040008457970083497 -0.041397689572047286 -0.027061221228861267 -0.069412294746525091
leaf_weight=9.9244311451911909 14.885669827461248 10.100364595651628 8.4166726768016797 4.9350517094135276 5.4554297178983715 6.4588202685117713 6.689509958028796 6.4539229720830926 15.13451397418976 7.1972325295209876 19.13239744305611 6.9389528334140751 8.6939870417118055 8.4401432722806913 7.1914164274930945 11.139471903443335 14.841424211859701 9.6859842240810341 27.572731092572216 4.9632437527179718 31.222390845417976 8.4192884713411313 5.4562369138002333 6.7105876058340117 5.4629293680191031 5.4626763761043566 7.1924695819616309 5.961246281862258 5.4562867879867545 6.4627383649349204
leaf_count=40 60 41 34 20 22 26 27 26 61 29 77 28 35 34 29 45 60 39 111 20 126 34 22 27 22 22 29 24 22 26
internal_value=4.0245e-06 0.0307838 0.0453096 0.0232696 -0.00381954 -0.0110634 -0.00777278 0.0246644 -0.0136832 0.0036895 -0.0199366 -0.00125754 -0.0253089 -0.00313075 0.00618309 0.0109619 0.00658001 -0.0366867 -0.0454302 0.0106135 0.0048519 -0.00914139 -0.0247201 0.00219743 0.0162123 -0.0561323 -0.00328319 0.00675914 0.0208716 -0.0320583
internal_weight=302.058 33.3765 23.4521 13.3517 268.682 136.756 130.297 20.0824 110.214 131.926 31.0506 13.3929 69.5274 23.5747 40.6871 100.875 89.736 45.9527 37.2587 82.5388 67.6974 36.475 22.5927 12.1668 13.8822 10.4259 33.4957 26.3032 20.342 25.5951
internal_count=1218 135 95 54 1083 551 525 81 444 532 125 54 280 95 164 407 362 185 150 333 273 147 91 49 56 42 135 106 82 103
is_linear=0
shrinkage=0.05


end of trees

feature_importances:
mass=8
true_range=7
illiquidity=5
ofi_proxy=5
rv_30=4
drift_tscore_15=3
drift_tscore_60=3
er_60=3
autocorr=3
d_mass_dt=3
dissipation_proxy=3
rv_120=2
rv_delta=2
gap_score=2
d_lambda=2
range_expansion=1
er_120=1
flip_rate=1
median_cross=1
impulse_revert=1

parameters:
[boosting: gbdt]
[objective: binary]
[metric: binary_logloss]
[tree_learner: serial]
[device_type: cpu]
[data_sample_strategy: bagging]
[data: ]
[valid: ]
[num_iterations: 500]
[learning_rate: 0.05]
[num_leaves: 31]
[num_threads: 0]
[seed: 42]
[deterministic: 0]
[force_col_wise: 0]
[force_row_wise: 0]
[histogram_pool_size: -1]
[max_depth: -1]
[min_data_in_leaf: 20]
[min_sum_hessian_in_leaf: 0.001]
[bagging_fraction: 0.8]
[pos_bagging_fraction: 1]
[neg_bagging_fraction: 1]
[bagging_freq: 0]
[bagging_seed: 400]
[bagging_by_query: 0]
[feature_fraction: 0.8]
[feature_fraction_bynode: 1]
[feature_fraction_seed: 30056]
[extra_trees: 0]
[extra_seed: 12879]
[early_stopping_round: 0]
[early_stopping_min_delta: 0]
[first_metric_only: 0]
[max_delta_step: 0]
[lambda_l1: 0]
[lambda_l2: 0]
[linear_lambda: 0]
[min_gain_to_split: 0]
[drop_rate: 0.1]
[max_drop: 50]
[skip_drop: 0.5]
[xgboost_dart_mode: 0]
[uniform_drop: 0]
[drop_seed: 17869]
[top_rate: 0.2]
[other_rate: 0.1]
[min_data_per_group: 100]
[max_cat_threshold: 32]
[cat_l2: 10]
[cat_smooth: 10]
[max_cat_to_onehot: 4]
[top_k: 20]
[monotone_constraints: ]
[monotone_constraints_method: basic]
[monotone_penalty: 0]
[feature_contri: ]
[forcedsplits_filename: ]
[refit_decay_rate: 0.9]
[cegb_tradeoff: 1]
[cegb_penalty_split: 0]
[cegb_penalty_feature_lazy: ]
[cegb_penalty_feature_coupled: ]
[path_smooth: 0]
[interaction_constraints: ]
[verbosity: -1]
[saved_feature_importance_type: 0]
[use_quantized_grad: 0]
[num_grad_quant_bins: 4]
[quant_train_renew_leaf: 0]
[stochastic_rounding: 1]
[linear_tree: 0]
[max_bin: 255]
[max_bin_by_feature: ]
[min_data_in_bin: 3]
[bin_construct_sample_cnt: 200000]
[data_random_seed: 175]
[is_enable_sparse: 1]
[enable_bundle: 1]
[use_missing: 1]
[zero_as_missing: 0]
[feature_pre_filter: 1]
[pre_partition: 0]
[two_round: 0]
[header: 0]
[label_column: ]
[weight_column: ]
[group_column: ]
[ignore_column: ]
[categorical_feature: ]
[forcedbins_filename: ]
[precise_float_parser: 0]
[parser_config_file: ]
[objective_seed: 16083]
[num_class: 1]
[is_unbalance: 0]
[scale_pos_weight: 1]
[sigmoid: 1]
[boost_from_average: 1]
[reg_sqrt: 0]
[alpha: 0.9]
[fair_c: 1]
[poisson_max_delta_step: 0.7]
[tweedie_variance_power: 1.5]
[lambdarank_truncation_level: 30]
[lambdarank_norm: 1]
[label_gain: ]
[lambdarank_position_bias_regularization: 0]
[eval_at: ]
[multi_error_top_k: 1]
[auc_mu_weights: ]
[num_machines: 1]
[local_listen_port: 12400]
[time_out: 120]
[machine_list_filename: ]
[machines: ]
[gpu_platform_id: -1]
[gpu_device_id: -1]
[gpu_use_dp: 0]
[num_gpu: 1]

end of parameters

pandas_categorical:[]
